{
  "inputs": [
    [
      0.6613521575927734,
      0.266924113035202,
      0.06167725846171379
    ],
    [
      0.6213173270225525,
      -0.4519059658050537,
      -0.16613022983074188
    ],
    [
      -1.522768497467041,
      0.38168391585350037,
      -1.0276086330413818
    ],
    [
      -0.563052773475647,
      -0.8922905325889587,
      -0.05825017765164375
    ]
  ],
  "weights": [
    [
      -0.19550958275794983,
      -0.9656359553337097
    ],
    [
      0.4224153161048889,
      0.267316997051239
    ],
    [
      -0.4211951494216919,
      -0.510699987411499
    ]
  ],
  "bias": [
    -1.5726652145385742,
    -0.12324775755405426
  ],
  "outputs": [
    [
      -1.6151912212371826,
      -0.7220183610916138
    ],
    [
      -1.8150575160980225,
      -0.759173572063446
    ],
    [
      -0.6808964610099792,
      1.9740227460861206
    ],
    [
      -1.8149654865264893,
      0.21168012917041779
    ]
  ],
  "targets": [
    [
      0.0,
      0.0
    ],
    [
      0.0,
      0.0
    ],
    [
      0.0,
      0.0
    ],
    [
      0.0,
      0.0
    ]
  ],
  "gradients": {
    "inputs": [
      [
        1.012992262840271,
        -0.875289261341095,
        1.0490455627441406
      ],
      [
        1.0879464149475098,
        -0.9696480631828308,
        1.1522033214569092
      ],
      [
        -1.7730655670166016,
        0.2400687336921692,
        -0.7213431596755981
      ],
      [
        0.15043719112873077,
        -0.710083544254303,
        0.6563495993614197
      ]
    ],
    "weights": [
      [
        -0.13716785609722137,
        -4.074362754821777
      ],
      [
        1.7486910820007324,
        0.7149235606193542
      ],
      [
        1.007332444190979,
        -1.9592636823654175
      ]
    ],
    "bias": [
      -5.92611026763916,
      0.7045109868049622
    ]
  }
}